4 20
test_1 0.923848 0.404752 -0.177605 0.601049 0.183046 -1.012945 -1.290265 0.778183 0.113776 0.508160 0.566183 0.196756 -0.547060 -0.077229 -1.540913 0.755085 -0.181134 -0.207649 0.918279 -0.090652 
test_2 -0.225064 -0.372376 -0.031143 -0.392246 0.816308 -0.778952 -0.201837 -0.378132 -0.495095 1.214480 0.670936 -0.748168 0.814374 -0.039575 -1.369490 0.652250 -0.029570 0.454627 0.700175 0.355196 
test_3 0.816082 -0.131242 -0.306274 0.793170 -0.985335 -1.260209 -0.871185 0.317904 0.514294 -0.935347 -0.603771 0.464343 -0.223247 0.770635 0.119885 0.374603 -0.636848 0.261870 0.673209 0.162407 
test_4 0.514481 0.952963 0.152763 0.376507 0.379021 0.859862 -0.489514 0.962511 0.106353 0.359796 0.642217 0.571121 -1.218411 -0.785642 -0.611594 -0.041419 0.482397 -0.988308 -0.217872 -0.602371 
