4 200
test_1 0.051388 0.029491 -0.011637 0.028596 0.013430 -0.054955 -0.070839 0.049330 0.007233 0.027386 0.031393 0.007865 -0.037642 -0.011590 -0.085839 0.033140 -0.010788 -0.013209 0.043979 -0.009761 0.018273 0.030810 0.018698 0.050843 0.034519 0.025010 -0.011301 0.002012 -0.042292 0.008755 -0.040318 0.065838 -0.006082 -0.006835 -0.020709 -0.034010 -0.017372 0.055549 -0.075180 -0.037805 -0.017358 0.027475 0.016587 -0.037201 -0.001951 -0.009445 0.012325 0.028786 0.022352 0.082648 0.096281 0.018291 0.007915 -0.002535 -0.038803 0.007324 -0.028631 0.017331 -0.026532 -0.009459 0.004112 -0.014624 0.015850 -0.017751 0.006881 0.040222 -0.006939 -0.025814 0.007211 -0.008391 0.024557 0.009410 0.027616 0.042361 0.033044 0.037387 -0.022133 0.049270 -0.013877 0.007104 0.013609 -0.040389 0.027983 0.036898 -0.009954 -0.060323 -0.050628 0.005408 0.008585 0.026069 0.009713 -0.014644 0.033155 -0.005834 -0.010503 -0.012251 -0.033430 -0.041479 -0.031530 0.014491 -0.025052 0.014181 -0.012087 0.021619 -0.057887 -0.012334 0.015246 -0.003233 0.005033 -0.028693 0.018497 -0.036668 -0.036514 -0.012000 0.009556 0.029869 0.008795 0.013044 0.019676 -0.061697 -0.010559 -0.088723 0.009755 0.029745 0.005868 0.038213 0.017949 0.053660 0.027884 0.071568 0.046463 0.057152 0.034675 0.012518 0.043774 -0.001010 -0.006044 0.014291 -0.013822 -0.008984 -0.035746 0.022194 -0.018632 -0.008508 0.039694 0.052752 0.043600 -0.009834 0.041553 0.041990 0.033818 -0.002897 0.019199 -0.026251 -0.015005 0.005646 -0.034473 -0.005770 0.039628 0.043045 -0.032385 0.035113 0.043711 0.015725 -0.055834 -0.053730 -0.042540 0.000676 -0.023105 -0.016696 -0.019128 -0.006917 -0.019966 0.012178 0.056119 0.027278 -0.006521 -0.081940 0.026109 -0.033702 -0.005763 0.054327 0.004871 -0.009893 -0.039605 0.008796 0.012154 -0.014939 0.038071 -0.003928 -0.016050 0.049328 -0.064207 -0.042898 0.005957 -0.035101 -0.035258 -0.016972 -0.004146 0.050494 
test_2 0.025320 0.011710 -0.005526 0.013529 0.014422 -0.034826 -0.040079 0.022378 -0.000871 0.026525 0.023955 -0.000705 -0.012575 -0.005826 -0.058600 0.025772 -0.004789 -0.004139 0.031167 -0.001642 0.003992 0.015921 0.011554 0.036757 0.024868 0.005458 0.000277 -0.005058 -0.027822 0.005289 -0.030959 0.045654 -0.004703 -0.007033 -0.003923 -0.007677 -0.017356 0.040546 -0.050714 -0.027738 -0.001676 0.007510 -0.001651 -0.013259 -0.006215 -0.004883 -0.001410 0.025887 0.018443 0.053788 0.057832 0.012540 -0.004820 -0.008154 -0.025115 0.006948 -0.016877 0.009099 -0.007634 -0.005502 0.002262 -0.015321 0.011928 -0.017435 -0.000890 0.026161 -0.011011 -0.020541 0.005086 -0.007846 0.002068 0.000909 0.022362 0.026866 0.011087 0.026904 -0.008875 0.028320 -0.010266 -0.003912 0.014680 -0.028556 0.022178 0.027889 -0.003115 -0.040977 -0.032202 0.011524 0.010584 0.017740 0.002024 -0.013575 0.013543 -0.015451 -0.016420 -0.011433 -0.021995 -0.025170 -0.022442 0.012863 -0.013262 0.006445 -0.014429 0.015993 -0.044163 -0.014720 0.017332 -0.009844 0.011156 -0.011826 0.017189 -0.020732 -0.028167 -0.008160 0.007968 0.022317 -0.005387 0.010340 0.013709 -0.042252 -0.005030 -0.059816 0.015070 0.023947 -0.000741 0.023327 0.012095 0.041246 0.024921 0.045387 0.034212 0.033801 0.027550 -0.001680 0.029165 0.002316 -0.014325 0.011092 -0.019155 -0.003776 -0.019503 0.018655 0.002419 -0.000990 0.029948 0.034427 0.031747 -0.009091 0.035651 0.027182 0.030137 -0.001217 0.007023 -0.015201 -0.015797 0.008082 -0.021875 0.004451 0.033860 0.029664 -0.025338 0.025613 0.015078 0.019964 -0.039154 -0.039372 -0.032300 -0.008244 -0.012988 -0.001568 -0.014696 0.009149 -0.009528 0.011361 0.037430 0.010518 -0.010450 -0.052715 0.003358 -0.010582 -0.010630 0.040033 -0.001295 -0.018294 -0.021780 0.008561 0.005368 -0.001999 0.025226 0.006560 -0.011644 0.032040 -0.036947 -0.023982 0.004076 -0.023273 -0.027172 -0.002699 0.001284 0.032314 
test_3 0.043857 0.021131 -0.009752 0.029227 -0.000553 -0.044625 -0.057150 0.038856 0.010513 0.009449 0.016769 0.013140 -0.031326 -0.002004 -0.056619 0.026134 -0.011299 -0.010157 0.035209 -0.006777 0.015295 0.018015 0.020574 0.030484 0.024288 0.030171 -0.009694 0.010395 -0.033358 -0.000221 -0.025202 0.046368 -0.006589 -0.009418 -0.025932 -0.039230 -0.003676 0.036895 -0.048778 -0.025132 -0.024377 0.032192 0.025804 -0.029618 0.007897 -0.005739 0.014015 0.015807 0.004527 0.061823 0.074056 0.005716 0.014348 0.005892 -0.033955 0.002880 -0.016009 0.020627 -0.023817 -0.000661 0.003152 -0.003532 0.012453 -0.007016 0.012513 0.030449 -0.005689 -0.021575 0.007920 -0.006494 0.030866 0.016337 0.009396 0.035786 0.033550 0.029999 -0.023566 0.034406 -0.014470 0.011688 0.000954 -0.031911 0.023280 0.023064 -0.006428 -0.046966 -0.036849 0.000820 0.003361 0.018135 0.014943 -0.003979 0.034759 0.007167 0.004227 0.001478 -0.015604 -0.032955 -0.026923 0.011150 -0.017551 0.007190 -0.002507 0.008376 -0.027665 0.001533 0.002654 -0.002254 -0.003900 -0.030489 0.004662 -0.031066 -0.020274 -0.011750 0.005451 0.022346 0.012443 0.008314 0.017569 -0.048548 -0.005061 -0.061914 -0.003598 0.020485 0.000940 0.034279 0.018075 0.027342 0.014711 0.054427 0.036891 0.042647 0.016387 0.018592 0.027657 -0.001070 0.005444 0.002130 0.002207 -0.013160 -0.035147 0.014108 -0.027878 -0.012567 0.028700 0.042523 0.024696 0.002525 0.017736 0.035899 0.015518 0.000353 0.018025 -0.011988 -0.004331 -0.006349 -0.031558 -0.007692 0.016742 0.029660 -0.012770 0.022304 0.043633 0.000103 -0.033651 -0.025540 -0.027274 0.008477 -0.017620 -0.015156 -0.006937 -0.020743 -0.011943 0.004526 0.040707 0.027602 0.001729 -0.059864 0.031589 -0.029795 0.001646 0.034580 0.001723 0.007888 -0.030712 0.003875 0.004457 -0.023694 0.022392 -0.011784 -0.003922 0.040998 -0.053439 -0.035598 0.004293 -0.015602 -0.018213 -0.009661 0.000516 0.038021 
test_4 0.046948 0.029617 -0.007625 0.029504 0.013264 -0.039422 -0.064138 0.046719 0.006393 0.026668 0.032090 0.012874 -0.038597 -0.013056 -0.077211 0.031486 -0.004525 -0.018657 0.038422 -0.011051 0.021899 0.032634 0.015693 0.048485 0.034312 0.026994 -0.011305 -0.001692 -0.037564 0.014622 -0.028613 0.051660 -0.008732 -0.000808 -0.012964 -0.027588 -0.010850 0.049174 -0.068560 -0.025617 -0.019410 0.016398 0.006801 -0.036768 0.002922 -0.008823 0.014899 0.029046 0.023228 0.072278 0.086206 0.021137 0.002803 -0.005049 -0.028685 0.013455 -0.030415 0.012448 -0.030344 -0.012945 0.000298 -0.019264 0.014679 -0.012352 0.000642 0.028700 0.001480 -0.022211 0.002070 -0.011313 0.017662 0.013745 0.026314 0.040506 0.027986 0.035568 -0.021424 0.046504 -0.007545 0.006099 0.007057 -0.034386 0.023664 0.027376 -0.012585 -0.046074 -0.047845 -0.000158 0.001188 0.016585 0.005775 -0.010034 0.020926 -0.000178 -0.005222 -0.007636 -0.034898 -0.031136 -0.031902 0.010240 -0.020474 0.018627 -0.009295 0.023615 -0.053479 -0.013824 0.017453 0.003024 -0.000508 -0.020319 0.013945 -0.031518 -0.037638 -0.005502 0.014379 0.020790 0.013534 0.008920 0.018232 -0.046428 -0.008179 -0.076065 0.005580 0.020693 0.006068 0.025438 0.014577 0.051201 0.023271 0.059600 0.033930 0.051050 0.030391 0.016190 0.037945 -0.006829 -0.004390 0.012436 -0.013245 -0.008063 -0.024946 0.016849 -0.022192 -0.011159 0.031089 0.049385 0.036591 -0.009509 0.033629 0.029582 0.026019 -0.007712 0.022520 -0.028907 -0.010747 0.006387 -0.029714 -0.001226 0.031940 0.042441 -0.029411 0.025031 0.038010 0.009456 -0.051231 -0.052807 -0.032134 -0.006003 -0.022339 -0.019601 -0.012279 -0.005189 -0.019976 0.002909 0.048545 0.019110 -0.012335 -0.072666 0.028723 -0.032409 -0.004815 0.045582 0.007084 -0.010770 -0.035723 0.003415 0.015078 -0.006086 0.034411 -0.007247 -0.012265 0.043242 -0.059686 -0.031667 -0.001852 -0.037247 -0.027394 -0.020875 -0.012349 0.047786 
